{"learner":{"attributes":{"best_iteration":"2","best_score":"0.6898391533319518"},"feature_names":[],"feature_types":[],"gradient_booster":{"model":{"gbtree_model_param":{"num_parallel_tree":"1","num_trees":"3"},"iteration_indptr":[0,1,2,3],"tree_info":[0,0,0],"trees":[{"base_weights":[1.289409E-4,2.54962E-1,-6.8975097E-1,-3.1082293E-1,5.293505E-1,-9.351049E-1,-3.2332715E-1,-1.1078041E-2,-7.378999E-2,-1.66642E-2,6.805563E-2,-6.350383E-2,-1.3950521E-1,-1.0419281E-2,-1.02825105E-1],"categories":[],"categories_nodes":[],"categories_segments":[],"categories_sizes":[],"default_left":[0,0,0,0,0,0,0,0,0,0,0,0,0,0,0],"id":0,"left_children":[1,3,5,7,9,11,13,-1,-1,-1,-1,-1,-1,-1,-1],"loss_changes":[1.9277476E3,1.243281E3,2.6561914E2,2.2339098E2,5.67631E2,2.4354883E2,1.8337262E2,0E0,0E0,0E0,0E0,0E0,0E0,0E0,0E0],"parents":[2147483647,0,0,1,1,2,2,3,3,4,4,5,5,6,6],"right_children":[2,4,6,8,10,12,14,-1,-1,-1,-1,-1,-1,-1,-1],"split_conditions":[1.1080124E0,6.646115E-1,1.0135776E0,8.883356E-1,8.019755E-1,1.0219761E0,1.8833107E0,-1.1078041E-2,-7.378999E-2,-1.66642E-2,6.805563E-2,-6.350383E-2,-1.3950521E-1,-1.0419281E-2,-1.02825105E-1],"split_indices":[25,25,22,27,26,27,25,0,0,0,0,0,0,0,0],"split_type":[0,0,0,0,0,0,0,0,0,0,0,0,0,0,0],"sum_hessian":[1.096331E4,8.0064546E3,2.9568542E3,2.6147493E3,5.3917056E3,1.770076E3,1.1867782E3,1.7815377E3,8.332115E2,9.6227954E2,4.4294263E3,1.0726602E3,6.9741595E2,9.0621716E2,2.8056104E2],"tree_param":{"num_deleted":"0","num_feature":"28","num_nodes":"15","size_leaf_vector":"1"}},{"base_weights":[2.0502722E-4,2.4317935E-1,-5.9404045E-1,-3.4720474E-1,4.808354E-1,-4.5714828E-1,-1.1297318E0,-1.7385451E-2,-7.186181E-2,-1.9361151E-2,6.1107423E-2,-6.996772E-2,-6.717077E-3,-1.4335816E-1,-8.7424606E-2],"categories":[],"categories_nodes":[],"categories_segments":[],"categories_sizes":[],"default_left":[0,0,0,1,0,0,0,0,0,0,0,0,0,0,0],"id":1,"left_children":[1,3,5,7,9,11,13,-1,-1,-1,-1,-1,-1,-1,-1],"loss_changes":[1.5815745E3,1.0910374E3,2.3260242E2,1.4358344E2,4.870791E2,2.3958441E2,4.8921387E1,0E0,0E0,0E0,0E0,0E0,0E0,0E0,0E0],"parents":[2147483647,0,0,1,1,2,2,3,3,4,4,5,5,6,6],"right_children":[2,4,6,8,10,12,14,-1,-1,-1,-1,-1,-1,-1,-1],"split_conditions":[1.0748287E0,6.2543654E-1,1.8537059E0,8.883356E-1,7.801793E-1,1.0135776E0,1.025644E0,-1.7385451E-2,-7.186181E-2,-1.9361151E-2,6.1107423E-2,-6.996772E-2,-6.717077E-3,-1.4335816E-1,-8.7424606E-2],"split_indices":[25,25,25,27,26,22,24,0,0,0,0,0,0,0,0],"split_type":[0,0,0,0,0,0,0,0,0,0,0,0,0,0,0],"sum_hessian":[1.0951763E4,7.7738086E3,3.177954E3,2.2310308E3,5.542778E3,2.5326155E3,6.453387E2,1.5220913E3,7.089396E2,8.9702264E2,4.645755E3,1.5610173E3,9.7159814E2,2.9266293E2,3.5267575E2],"tree_param":{"num_deleted":"0","num_feature":"28","num_nodes":"15","size_leaf_vector":"1"}},{"base_weights":[2.2941895E-4,2.3776975E-1,-5.005004E-1,-2.5431255E-1,5.068015E-1,-6.9897896E-1,-1.7568836E-1,-1.0516911E-2,-6.63369E-2,-6.2108366E-3,6.549507E-2,-4.463306E-2,-1.1338186E-1,-8.673747E-4,-7.7709906E-2],"categories":[],"categories_nodes":[],"categories_segments":[],"categories_sizes":[],"default_left":[0,0,0,0,0,0,1,0,0,0,0,0,0,0,0],"id":2,"left_children":[1,3,5,7,9,11,13,-1,-1,-1,-1,-1,-1,-1,-1],"loss_changes":[1.299553E3,9.811594E2,2.2650916E2,1.5977292E2,4.0387415E2,2.3918018E2,1.3405548E2,0E0,0E0,0E0,0E0,0E0,0E0,0E0,0E0],"parents":[2147483647,0,0,1,1,2,2,3,3,4,4,5,5,6,6],"right_children":[2,4,6,8,10,12,14,-1,-1,-1,-1,-1,-1,-1,-1],"split_conditions":[1.0294617E0,6.646115E-1,1.0246522E0,9.29011E-1,8.116482E-1,1.0219761E0,1.8537059E0,-1.0516911E-2,-6.63369E-2,-6.2108366E-3,6.549507E-2,-4.463306E-2,-1.1338186E-1,-8.673747E-4,-7.7709906E-2],"split_indices":[25,25,22,27,26,27,25,0,0,0,0,0,0,0,0],"split_type":[0,0,0,0,0,0,0,0,0,0,0,0,0,0,0],"sum_hessian":[1.0923798E4,7.4093936E3,3.5144043E3,2.6190251E3,4.7903687E3,2.180713E3,1.3336913E3,1.9201783E3,6.9884674E2,9.8984186E2,3.8005266E3,1.3805939E3,8.0011914E2,1.0446119E3,2.8907928E2],"tree_param":{"num_deleted":"0","num_feature":"28","num_nodes":"15","size_leaf_vector":"1"}}]},"name":"gbtree"},"learner_model_param":{"base_score":"5.2887696E-1","boost_from_average":"1","num_class":"0","num_feature":"28","num_target":"1"},"objective":{"name":"binary:logistic","reg_loss_param":{"scale_pos_weight":"1"}}},"version":[2,1,0]}